{"type":"NeuralNetwork","sizes":[41,10,11],"layers":[{"weights":[],"biases":[]},{"weights":[[0.6234562993049622,0.8217774629592896,0.7899037599563599,0.6637614369392395,0.8306125402450562,-1.441943645477295,0.35899147391319275,-0.29089847207069397,-0.3070437014102936,-0.5824621319770813,-1.5926445722579956,0.6476984620094299,0.11699170619249344,0.15139859914779663,0.30092504620552063,0.026423662900924683,-0.41898447275161743,-0.38475608825683594,0.8592796921730042,0.30121487379074097,0.4820973873138428,0.2881634831428528,0.42598599195480347,0.5727388262748718,0.4141252040863037,-0.015927422791719437,-0.13026870787143707,-0.20828358829021454,-0.7483929395675659,-0.9976495504379272,-0.883353054523468,-0.2818572223186493,-0.1699458211660385,-0.3160432279109955,-0.18742164969444275,-0.3589495122432709,-0.27052056789398193,-1.1266224384307861,2.110184907913208,2.094494581222534,-1.4832463264465332],[-0.6601973176002502,-0.7815728187561035,-0.803210437297821,-0.33104410767555237,-0.60770183801651,-1.7473633289337158,-1.1040068864822388,0.03160196542739868,-0.013094154186546803,-1.015334129333496,-0.7467847466468811,0.3714182376861572,1.5884945392608643,1.2364206314086914,0.2253495454788208,0.47723135352134705,1.2185087203979492,0.7093276381492615,0.7226706147193909,0.3453979790210724,0.40670347213745117,0.20859631896018982,0.45528852939605713,0.1668599545955658,0.33554306626319885,0.10302672535181046,1.0390020608901978,0.3233559727668762,0.8642843961715698,1.0628944635391235,1.0410828590393066,0.09847570210695267,-0.06393955647945404,0.2681906223297119,0.4424874186515808,0.4514411985874176,0.4662947654724121,0.5532762408256531,0.7708078026771545,0.6587435007095337,-0.14396430552005768],[-0.6069508194923401,-0.7041605710983276,-0.5732946991920471,-0.41817882657051086,-0.6767488121986389,0.7742964029312134,3.050297260284424,0.43791043758392334,0.4586297571659088,0.07584597170352936,-2.271333694458008,-0.3706483840942383,-1.068414330482483,-0.152974471449852,-0.2967693507671356,-0.24217256903648376,-0.07546912133693695,-0.22659559547901154,0.39877161383628845,0.224175363779068,-0.10092960298061371,0.06079339236021042,0.019864242523908615,0.19927825033664703,0.2723739445209503,0.08937651664018631,-0.15897247195243835,0.21201668679714203,0.8278056979179382,1.3689831495285034,1.1242669820785522,0.24271224439144135,0.30204272270202637,0.5420792102813721,0.6312329173088074,0.25245121121406555,0.48656412959098816,0.7695994973182678,0.6801967620849609,0.5691887736320496,-0.32754266262054443],[0.993076503276825,1.0051084756851196,0.8644653558731079,0.9531041383743286,0.8936245441436768,-0.30893734097480774,1.7340694665908813,-0.23524673283100128,-0.2155582159757614,-0.00588852958753705,-2.0938539505004883,1.1230336427688599,0.7957394123077393,-0.40094780921936035,1.4200557470321655,-0.09014739096164703,-1.8312472105026245,-1.9769370555877686,-1.235430121421814,-0.6456634402275085,-0.7597030401229858,-0.4629504382610321,-0.7399576306343079,-0.41961508989334106,-0.4238671064376831,-0.288629412651062,-1.5537410974502563,-0.48517146706581116,-0.47708043456077576,-0.3563409447669983,-0.5269519090652466,0.13075383007526398,-0.009343771263957024,-0.02869759500026703,0.028444580733776093,-0.16848182678222656,-0.26729825139045715,0.20790168642997742,0.7447598576545715,0.7528117299079895,-1.5221871137619019],[0.4848322868347168,0.6068955063819885,0.6411634087562561,0.8048964142799377,0.4951438009738922,-0.04080452024936676,-1.8444833755493164,-0.025401463732123375,-0.00984827522188425,0.22087189555168152,1.5934487581253052,-0.06254054605960846,-1.3703701496124268,-0.9288172125816345,0.28715312480926514,-0.16196002066135406,-1.1545469760894775,-0.8098390102386475,-1.1369602680206299,-0.6557146310806274,-0.709701657295227,-0.4448870122432709,-0.535606861114502,-0.6954711675643921,-0.3256499171257019,-0.12046796828508377,-0.5659412145614624,-0.08640281111001968,0.5148094296455383,0.762424111366272,0.9704194664955139,-0.9014803171157837,-0.7937132120132446,-0.9128722548484802,0.3327781856060028,0.1973954141139984,0.27566275000572205,0.35431456565856934,0.17457863688468933,0.2724349796772003,0.8268188834190369],[-0.8067756295204163,-0.6443672776222229,-0.6420345902442932,-0.32770127058029175,-0.8080610632896423,1.4917398691177368,0.6199861168861389,0.2673477530479431,0.26884037256240845,0.8352405428886414,0.6469634771347046,0.48858192563056946,2.0011184215545654,1.1990625858306885,0.0652879923582077,0.6871767640113831,1.006933331489563,0.6687431335449219,-1.3545114994049072,-0.5956211090087891,-0.7126356363296509,-0.4545467495918274,-0.7652502655982971,-0.5006143450737,-0.6582873463630676,-0.15780669450759888,0.8543927669525146,0.24256353080272675,-0.16247625648975372,-0.2783074676990509,-0.376025527715683,1.6519707441329956,1.4935048818588257,1.6397775411605835,-0.05132567137479782,-0.08391934633255005,-0.012568756937980652,0.0984790027141571,-0.09229740500450134,-0.07516004145145416,-2.0444388389587402],[-0.04060820862650871,-0.08197412639856339,-0.038432929664850235,0.09139224886894226,0.11075149476528168,1.3431743383407593,0.6309909224510193,0.3334001302719116,0.3155158758163452,0.7691715955734253,0.8628789782524109,1.7298275232315063,-1.2673869132995605,0.4101547300815582,1.7125288248062134,0.14493931829929352,-1.579430103302002,-1.904557228088379,0.07974160462617874,0.05611691623926163,-0.13104183971881866,0.08481264114379883,0.05766221508383751,0.12375423312187195,0.04531242698431015,0.132082000374794,1.6720799207687378,0.37303757667541504,-0.4379573166370392,-0.5246528387069702,-0.5922379493713379,-0.835046112537384,-0.6968659162521362,-0.7968107461929321,0.0016236818628385663,-0.2584797143936157,-0.2011638730764389,3.4400744438171387,-1.5911070108413696,-1.7524574995040894,-1.6316447257995605],[-1.164631724357605,-1.0332907438278198,-1.2423453330993652,-0.9635201096534729,-1.1139461994171143,1.5585787296295166,0.28769800066947937,-0.1537962555885315,-0.16633564233779907,0.8527074456214905,1.2864387035369873,0.15632443130016327,2.480820655822754,0.08314565569162369,0.14047491550445557,0.7875940799713135,-0.10986931622028351,0.4822128117084503,1.6079533100128174,1.0588310956954956,0.7944957613945007,0.6575129628181458,0.8866267800331116,0.6711273789405823,0.8675532937049866,0.268412709236145,-1.994391918182373,-0.3790907561779022,0.03834255784749985,0.11220525950193405,0.10119863599538803,1.2489292621612549,0.9686667323112488,0.926360547542572,0.08257530629634857,0.012298070825636387,0.03799755498766899,-1.9172803163528442,-0.7367973327636719,-0.6814465522766113,1.5641149282455444],[0.6546807885169983,0.5928357839584351,0.49966081976890564,0.6445213556289673,0.6456820964813232,-0.8000981211662292,-1.9889434576034546,-0.016463829204440117,-0.0002771254803519696,0.004467229824513197,1.5863547325134277,-0.7969546914100647,-2.7628262042999268,-0.2376498281955719,-0.5286654233932495,-0.6059930920600891,0.15014588832855225,-0.5291632413864136,0.6324403882026672,0.5103890895843506,0.40677234530448914,0.4006418287754059,0.5049036145210266,0.27788829803466797,0.3584064245223999,0.23372283577919006,1.3219878673553467,0.3954336941242218,-0.11537927389144897,-0.2395932972431183,-0.1017875075340271,0.5971540212631226,0.785896897315979,0.6749069690704346,-0.06396036595106125,-0.11113486438989639,0.06949951499700546,-1.227925181388855,-1.5957872867584229,-1.7204124927520752,1.9626872539520264],[0.27854421734809875,0.39311477541923523,0.275881290435791,0.2024998664855957,0.44783860445022583,1.1779444217681885,0.3413125276565552,0.2578544020652771,0.26197394728660583,0.8368596434593201,0.7096222043037415,-2.4011547565460205,-0.5964416861534119,-0.07791000604629517,-2.168405294418335,0.051717717200517654,2.268502950668335,2.2854578495025635,-1.091554880142212,-0.38806214928627014,-0.6466469168663025,-0.23745235800743103,-0.4741251766681671,-0.23374059796333313,-0.4241744875907898,-0.15812212228775024,0.7340691089630127,0.22190307080745697,-0.34360578656196594,-0.3101082444190979,-0.3057675361633301,-1.2993700504302979,-1.3264938592910767,-1.1979236602783203,0.07745006680488586,-0.20516431331634521,-0.19409537315368652,-1.6997874975204468,0.2682233452796936,0.02763364650309086,2.4185612201690674]],"biases":[1.2170547246932983,-0.524353563785553,-1.298985242843628,0.7462870478630066,0.15238739550113678,-0.43170106410980225,0.9265074133872986,-0.5855008363723755,0.9713960886001587,0.7555146813392639]},{"weights":[[1.9709558486938477,-3.5051610469818115,-3.374296188354492,3.0470714569091797,0.4776744842529297,-2.796720504760742,0.11051057279109955,-4.011027812957764,1.8308918476104736,0.3507254421710968],[-1.025745153427124,-4.399742126464844,3.357722759246826,1.5602333545684814,-3.076122760772705,0.2723945379257202,0.9867880940437317,0.029387403279542923,-3.105886936187744,0.8796249032020569],[-3.3192405700683594,-3.8254551887512207,-3.7896673679351807,-2.9747793674468994,1.0743101835250854,0.40467843413352966,1.4813657999038696,1.4513436555862427,1.0076345205307007,1.070928692817688],[0.9133574366569519,0.39174172282218933,-2.543116331100464,3.265712261199951,-1.8390077352523804,0.9657918214797974,1.0252764225006104,0.08692307770252228,-2.86208176612854,-4.947529315948486],[0.09324676543474197,0.8791095614433289,-2.272752285003662,-1.3033149242401123,-2.985668420791626,1.266613483428955,-4.779570579528809,1.4994914531707764,-3.027186155319214,2.9399361610412598],[2.1172637939453125,-0.02919119782745838,-1.2146024703979492,-2.0587575435638428,-3.083923101425171,-4.3555908203125,-0.09289921820163727,2.4702234268188477,1.7174328565597534,-2.301776647567749],[-0.3064768612384796,1.2619355916976929,-1.5471667051315308,-3.837470531463623,-2.70731520652771,1.1935210227966309,0.85007643699646,-4.6823554039001465,1.3699246644973755,1.5381449460983276],[-2.4612300395965576,0.022530555725097656,0.9631872177124023,-1.3490989208221436,-0.6013252139091492,3.0258820056915283,-3.34464955329895,1.288084864616394,1.1489274501800537,-4.8290181159973145],[-3.3203675746917725,1.0546640157699585,0.9681133031845093,-1.029863953590393,1.0505213737487793,-1.292346477508545,3.711348533630371,-3.2187774181365967,-1.809086561203003,-3.019204616546631],[2.265098810195923,1.1592752933502197,1.1299374103546143,0.5310884714126587,0.9992131590843201,-2.0836222171783447,-4.801063060760498,-3.020235300064087,-3.620685577392578,-0.5363125205039978],[-3.368483543395996,0.4987347424030304,-0.20960600674152374,-2.9024243354797363,1.574540615081787,-4.706766128540039,-3.3445534706115723,0.6133948564529419,1.5942461490631104,1.9821233749389648]],"biases":[-0.6683779358863831,-1.318209171295166,-1.2469956874847412,-1.7444818019866943,-1.2729402780532837,-1.127410650253296,-1.4949246644973755,-1.3958019018173218,-0.6528087854385376,-0.6471078991889954,-1.083383560180664]}],"inputLookup":null,"inputLookupLength":0,"outputLookup":{"0":0,"1":1,"2":2,"3":3,"4":4,"5":5,"6":6,"7":7,"8":8,"9":9,"10":10},"outputLookupLength":11,"options":{"inputSize":0,"outputSize":0,"binaryThresh":0.5,"hiddenLayers":[10],"activation":"sigmoid","leakyReluAlpha":0.01,"learningRate":0.1},"trainOpts":{"activation":"sigmoid","iterations":1000,"errorThresh":0.005,"log":true,"logPeriod":100,"leakyReluAlpha":0.01,"learningRate":0.1,"momentum":0.1,"callbackPeriod":10,"timeout":"Infinity","beta1":0.9,"beta2":0.999,"epsilon":1e-8}}